{"layers":[{"0":{},"1":{},"2":{},"3":{},"4":{},"5":{},"6":{},"7":{},"8":{}},{"0":{"bias":0.4646479887126726,"weights":{"0":10.505824299961883,"1":23.929874093374217,"2":-40.51927000981554,"3":-0.6794307076113446,"4":-28.78309378173553,"5":18.191587731098497,"6":10.138482687056658,"7":16.293037565504363,"8":-34.31878956965576}},"1":{"bias":-5.799560545656061,"weights":{"0":-12.900917994553462,"1":-11.50070822003043,"2":30.263042904890373,"3":-66.31928077342278,"4":-13.267042219007596,"5":-22.561155847383237,"6":65.80799405785973,"7":-63.217361299033605,"8":0.3992519241383345}},"2":{"bias":3.233678432191378,"weights":{"0":38.75647124952478,"1":8.868312965571587,"2":-26.848558106393877,"3":43.00487423473665,"4":-38.61556269899732,"5":39.86509236372762,"6":3.8200209488897583,"7":-24.727755334861882,"8":4.037050606585137}},"3":{"bias":-3.8428963860848584,"weights":{"0":10.279462495275421,"1":12.65273798420284,"2":-29.949173543553886,"3":-54.392563487153176,"4":27.294955612684312,"5":41.17378479904458,"6":2.7287133060246385,"7":-23.209677034660917,"8":22.763744949161673}}},{"0":{"bias":0.17853798595465128,"weights":{"0":-30.915364277488298,"1":20.581949584350927,"2":-12.862669759627606,"3":-15.806456017413566}}}],"outputLookup":false,"inputLookup":false}