{"layers":[{"0":{},"1":{},"2":{},"3":{},"4":{},"5":{},"6":{},"7":{},"8":{}},{"0":{"bias":-2.1382695913661673,"weights":{"0":-5.7606843488096695,"1":17.244580876580677,"2":-20.840642100389008,"3":-40.84925084742467,"4":1.1493688444259402,"5":40.55327706218081,"6":3.8203837949732757,"7":-9.416244652209922,"8":6.393426862060249}},"1":{"bias":1.0009875738871263,"weights":{"0":5.594585427136244,"1":22.306439668127464,"2":-12.900931634845845,"3":30.013494296158342,"4":-32.272165282629615,"5":36.9090380305442,"6":6.422721602354277,"7":-1.1116793322600098,"8":-16.973229930659112}},"2":{"bias":-2.140790448907508,"weights":{"0":-9.199175879073518,"1":-6.168075885700836,"2":23.87407847499726,"3":-49.69150544956356,"4":-10.709651623239058,"5":-18.491172874973277,"6":32.857538626657586,"7":-30.207024879886692,"8":-4.991616873809888}},"3":{"bias":11.3020249290248,"weights":{"0":13.619086259796424,"1":13.453676039206346,"2":-26.118563880783288,"3":10.287393569206307,"4":23.097206020905055,"5":18.51275249743898,"6":-29.568186471232533,"7":24.639029983109793,"8":-5.259044863787926}}},{"0":{"bias":13.005131806942027,"weights":{"0":-19.60589768839793,"1":-22.343873732348516,"2":16.102180529844777,"3":-13.68409627124791}}}],"outputLookup":false,"inputLookup":false}